encog,BasicNetwork,java,3.3.0,1,1436176174781
[BASIC]
[BASIC:PARAMS]
[BASIC:NETWORK]
beginTraining=0
connectionLimit=0
contextTargetOffset=0,0,0
contextTargetSize=0,0,0
endTraining=2
hasContext=f
inputCount=4
layerCounts=1,9,5
layerFeedCounts=1,8,4
layerContextCount=0,0,0
layerIndex=0,1,10
output=0.9824713915,0.2700663271,0.0050798439,0.0032354194,0.9308419741,0.1045328262,0.8697337408,0.5691686967,0.3239146735,1,0.9705882353,0.9803921569,1,0.9803921569,1
outputCount=1
weightIndex=0,9,49
weights=11.4571260032,-0.0997501592,-657.7528405973,1.6481485616,0.007530922,1.649205645,0.273741998,-0.3510419365,0.0492453856,-0.48277782,0.539088244,0.6045342041,-1.121002648,-0.5597375005,-1.2232079661,-1.4007866622,-0.996825409,-0.6388782411,-1.093653813,-2.8043657652,-13.782965113,-12.4480989223,20.8531772044,2.5080468206,0.7846478072,1.6005094642,-0.1642313608,0.0153988572,0.4181329943,-0.3567031907,-0.8112048974,-0.7354359172,0.152615016,-0.4205202235,1.1393549955,0.8188269448,-0.1567631133,-0.3593856612,0.4990925437,0.0679845991,-0.5025822323,-0.2419148162,0.2472910646,0.7046754863,-1.0216744567,-1.0975856202,-0.0422437955,0.7777322092,0.6116116158
biasActivation=0,1,1
[BASIC:ACTIVATION]
"org.encog.engine.network.activation.ActivationSigmoid"
"org.encog.engine.network.activation.ActivationSigmoid"
"org.encog.engine.network.activation.ActivationLinear"
