encog,BasicNetwork,java,3.3.0,1,1450902605965
[BASIC]
[BASIC:PARAMS]
[BASIC:NETWORK]
beginTraining=0
connectionLimit=0
contextTargetOffset=0,0,0
contextTargetSize=0,0,0
endTraining=2
hasContext=f
inputCount=4
layerCounts=1,9,5
layerFeedCounts=1,8,4
layerContextCount=0,0,0
layerIndex=0,1,10
output=0.9999850892,0.2471339453,0.9716886275,0.5677651808,0.8929223625,0.9189355766,0.8809578216,0.9669214344,0.9054882569,1,0.1968190855,0.1968190855,0.1968190855,0.1968190855,1
outputCount=1
weightIndex=0,9,49
weights=0.3318284153,1.7872765411,0.9845798406,1.549013771,1.8011619441,1.5412213001,2.2747998862,1.402275828,0.8703695241,-0.9851787116,-0.6716954285,-0.2186157504,-0.3252526791,-0.6808087114,1.3994903328,2.0323340603,1.406188148,1.6884621706,2.2512370495,0.1197112118,0.4130755322,-0.7568778061,-0.4915265685,0.4135861233,0.9131830585,1.2257329586,0.9280256865,1.7170522898,1.1793641592,1.9795293705,0.8676125747,1.8127264574,0.754485078,1.3623237286,2.0288950091,1.220956511,0.6748166978,1.5683275165,0.9204054816,1.7722976732,0.8673093797,1.3158601197,1.8610320832,2.2304336747,1.5183488188,0.6561062064,1.4192847418,2.0189728644,1.155061249
biasActivation=0,1,1
[BASIC:ACTIVATION]
"org.encog.engine.network.activation.ActivationSigmoid"
"org.encog.engine.network.activation.ActivationSigmoid"
"org.encog.engine.network.activation.ActivationLinear"
