encog,BasicNetwork,java,3.3.0,1,1436272974831
[BASIC]
[BASIC:PARAMS]
[BASIC:NETWORK]
beginTraining=0
connectionLimit=0
contextTargetOffset=0,0,0
contextTargetSize=0,0,0
endTraining=2
hasContext=f
inputCount=4
layerCounts=1,9,5
layerFeedCounts=1,8,4
layerContextCount=0,0,0
layerIndex=0,1,10
output=0.9895780715,0.340352369,0.3119714747,0,0.238806109,0.3020001187,0.700846678,0.2444595804,0.4625400395,1,0.9705882353,0.9803921569,1,0.9803921569,1
outputCount=1
weightIndex=0,9,49
weights=29.1166369825,6.3733040887,1.6646171772,13.9642949472,75.8775048082,-54.4657865205,18.9350806888,0.1309466909,-0.111877707,1.651091949,-4.3409370195,-0.2989221614,0.7637300731,1.5417330346,1.114517554,1.5270528636,-4.0893977676,0.2785229565,0.4465692272,-1.9368917277,-18683.2058627895,-63933.8245662467,-18619.1766660777,-3.6440976335,0.9871268039,0.8056503632,-1.2520778002,-1.2035913467,-0.4751137897,0.3654336036,1.0077687475,0.7216620713,-4.3693482812,1.3815270595,-0.2172622374,-1.1779616463,-0.1268989859,3.723426187,-1.3064493943,0.8007123799,-0.0471795001,-0.8211041451,-0.9938874054,-0.0637873428,-0.371825443,-0.4427307043,0.6211512015,-0.5789745277,0.5912888551
biasActivation=0,1,1
[BASIC:ACTIVATION]
"org.encog.engine.network.activation.ActivationSigmoid"
"org.encog.engine.network.activation.ActivationSigmoid"
"org.encog.engine.network.activation.ActivationLinear"
